
#include "network_evaluate.h"



float linear(float num) {
	return num;
}



float sigmoid(float num) {
	return 1 / (1 + exp(-num));
}



float relu(float num) {
	if (num > 0) {
		return num;
	} else {
		return 0;
	}
}

static const int structure[3][2] = {{18, 64},{64, 64},{64, 4}};
static float output_0[64];
static float output_1[64];
static float output_2[4];
static const float layer_0_weight[18][64] = {{-0.40100747,-0.38618645,0.12545428,0.13809487,0.23721078,0.5449423,-1.2570418,0.25728992,-1.1760311,0.30747008,0.27195695,-0.08448228,0.46412936,-0.6028746,0.51052153,-0.1247243,-0.7095702,-0.35862035,-0.097720444,0.15482387,-0.08391202,-0.16682307,0.42224523,0.34088615,-0.77193695,0.5696398,0.557438,-0.27106684,-0.28001603,-0.36806843,0.09145567,0.18316919,-0.17773038,0.12574838,-0.2557742,0.24821055,-0.25258362,0.7612132,0.13899527,0.3654509,-0.19783904,-0.7783735,-0.5130465,-0.26775607,-0.03349568,-0.42708436,0.43875748,0.31554398,-0.05045714,-0.23121125,-0.6719101,0.34264743,-0.56901246,-0.6782272,-0.531083,-0.11945574,-0.2850667,-0.35343584,0.08773213,0.003447097,0.0043417765,-0.5073343,-0.32214528,-0.28423786},{-0.7803328,-0.4412048,0.15454884,0.14518644,-0.0618257,-0.39847738,-0.07979283,-0.22454488,-0.7727141,-0.24917103,0.04932519,0.33265746,0.11893622,0.36082602,-0.13430962,0.6059427,0.35904393,0.26146826,-0.27185035,0.27822596,0.2225108,-0.27371457,-0.08705781,-0.25319222,-0.06008428,0.5737693,0.16963623,0.65979147,0.47687533,0.022257907,1.0639234,-0.7070125,0.37076604,-0.7414634,-0.44499984,-0.6990506,-0.66114616,-0.18947095,-0.35120222,-0.21313432,0.27068296,-0.043003842,-0.275746,0.045500044,0.11068383,0.7791259,0.17317131,-0.8434753,0.08263348,-0.962693,-0.33627746,0.6941705,-0.43005127,-0.090036966,-0.18472251,0.117147245,-0.0892649,0.34471697,-0.43489814,0.12461085,0.33815023,-0.098818876,-0.14423797,-0.5761626},{-0.08533704,0.42621955,0.2212836,0.060778316,-0.04261561,2.4902568,-0.08282792,-0.022954538,0.25491202,0.24911557,-0.12383825,-0.07196917,-0.31981274,-0.065320134,-0.19664553,0.09863519,-0.022620892,0.12744863,0.20511663,-0.3222896,0.08414098,-0.3817729,0.22017978,0.31634343,0.13459995,0.7178511,0.043281063,0.10077838,-0.072406925,0.7496476,0.14189033,-0.23314723,-0.26237708,-0.44948894,-0.5107996,0.054293368,0.05370967,0.113497615,-0.10376269,0.0571279,0.03774612,-0.17466272,0.33606294,0.03401139,-0.010933422,-0.103263125,-0.14168854,0.00062069565,-0.049588375,0.05900686,-0.1977383,-0.018762773,0.21087162,0.25420478,0.47573763,-0.05872515,-0.059084237,-0.17931218,-1.2085767,0.081157245,-0.4298586,-0.1695974,0.19262315,0.08959267},{-0.32636538,0.005316484,-0.21648832,-0.17427582,0.35690612,0.33902144,-0.3643184,0.4635562,-0.6463518,-0.022321433,0.30089477,-0.09714794,0.3883811,-0.41863248,0.016322797,-1.132774,-0.6585736,-0.27381653,-0.2109302,0.0047154226,0.14368632,-0.3474561,0.024382899,0.30045304,-0.7583263,0.26659635,0.7071347,-0.028490134,-0.39390597,0.2465003,-0.030428639,-0.33937928,-0.09279766,0.261097,-0.24496613,-0.27365917,-0.49325886,0.68458337,0.050941013,0.30410954,0.28454164,-0.17877685,-0.34021878,-0.6105038,-0.3312727,-0.40163225,0.4803651,0.064069554,0.29858068,-0.46421897,-0.1344162,0.2759014,-0.34100658,-0.49489698,0.19495948,-0.28942084,0.24547228,-0.358511,0.32530695,-0.32631886,-0.496993,0.12206423,-0.33803493,-0.012424414},{-0.8594515,0.5472764,0.13334395,0.3219879,0.06286647,-0.013584259,-0.17355639,0.08012914,-0.08190412,-0.36467597,0.2409776,-0.11834914,0.24974623,0.2551042,-0.14314432,0.23852026,0.3823993,0.23150277,-0.12952672,0.40875936,0.57766056,-0.37906066,-0.1881596,0.3260882,-0.09746547,0.41013536,0.1510386,0.449757,0.054061417,-0.43593228,0.68560034,-1.1538517,0.42947417,-0.5905147,0.37702012,-0.54223317,-0.57134426,0.018682634,-0.3835904,-0.1524598,0.7513066,-0.26498482,0.00594188,0.3916135,0.01260187,0.17555673,0.03836151,-0.5312581,-0.08069748,-0.62547493,-0.0020172785,0.20533551,-0.4325061,-0.26001698,-0.11371221,0.09644308,0.577588,0.46040654,0.42382765,-0.0894409,0.39960462,-0.050028205,-0.035568014,-0.23180741},{0.14044501,-0.1056528,0.09251193,-0.06501833,-0.13445418,1.0775176,0.08051268,0.054484867,-0.052018236,0.10980984,0.087650664,-0.07380754,0.14559864,0.022292808,-0.18435259,0.2254566,0.07338066,-0.05516971,-0.05862619,-0.11649262,0.13291617,-0.029594416,0.18208027,-0.057946224,0.07209749,0.5899789,0.11958776,-0.04352602,-0.0658419,-0.2623293,-0.07020093,0.10150295,0.122720614,0.014457722,-0.036335777,-0.064575985,0.2769241,0.24275377,0.12596306,-0.0059833303,0.07650372,-0.32945907,0.028593754,0.07623267,-0.07784121,-0.068997614,-0.06789646,-0.1249837,-0.11137242,0.092255436,0.15041603,-0.16034493,0.058854382,0.2781334,-0.13000444,-0.032136705,0.17207637,-0.2546521,-0.2891922,-0.06334126,-0.14505471,0.2433549,0.11745168,0.1197508},{0.76358426,0.44440228,-0.44158882,-0.18163325,-0.49478737,-0.67208636,0.08716401,1.0797133,0.030383568,-0.1395441,-0.85492635,0.3334391,-0.88660765,-0.6806216,-0.31553712,0.8077652,0.72032785,0.30824035,0.2588797,-0.21000785,-0.13978466,-0.17036286,0.38309914,0.26037785,0.33537635,0.13669887,0.789901,0.5932591,0.22060038,-0.100734666,-0.37424803,0.6290269,-0.0017816187,-0.76305634,0.27595153,-0.13944712,-0.3208453,0.3782343,-0.04206075,-0.53685755,0.5739112,0.4855239,0.61104965,-0.6789846,-0.26786956,0.3810971,-0.4702187,-0.11417588,0.20836423,-0.33580405,0.022807373,1.3077677,-0.42761102,0.19659741,0.45146507,0.15321551,1.0054277,-0.44311735,-0.54603595,0.6902765,0.0124939075,0.24919796,-0.81273854,0.12459665},{0.3262015,-0.42173642,0.3075146,0.04424172,0.18687399,-0.2968878,0.48635325,-0.8305513,0.33465773,0.83221525,0.8229301,0.11652358,0.658778,0.3012415,-0.6801401,0.015338509,0.710504,0.19736058,0.2796019,0.45346376,-0.25130802,-0.6954192,-0.7246249,-0.42170823,0.19838879,-0.47028512,-0.77700615,-0.5560956,0.5821386,0.5313119,0.6388392,0.39095935,-0.09982117,0.2987346,0.5818561,-0.39838436,0.112655155,0.32139733,0.40126795,0.39850894,-0.0282887,0.253384,-0.31807113,0.688077,0.22121282,-0.16638118,0.25130105,0.2346725,-1.0292518,0.18101369,-0.27522457,0.4607487,0.9492389,-1.048618,0.62574655,-0.31924504,0.058166053,0.019793458,-0.7889236,0.14373453,0.54859394,0.028231343,0.945607,0.0027143068},{-0.26070192,0.46745145,-0.18456341,0.50517464,-0.0618366,-0.06931983,0.6239687,0.58170086,0.3855399,-1.1208599,1.5722115,0.6575149,0.11943428,-1.454516,-0.573869,-0.7868551,-0.657993,-1.6958925,0.8854326,0.040141515,0.62074924,0.19611588,0.03131032,0.0012044278,-0.33666295,-0.19718242,-1.0528508,0.4342492,-2.3180234,0.7723574,0.7349957,-1.4852526,-0.7411929,0.2874011,-0.12898603,0.28011695,0.2604832,0.8502339,0.06900946,0.7949336,-1.1244013,-0.97450846,-0.74591583,1.2570664,0.38254297,-0.5777907,0.9473006,-0.20120592,-0.5799569,-0.5260099,0.07964343,-0.1763048,-0.0035580618,-0.2743252,1.3634014,0.27841622,0.13978195,-0.28902662,-0.40875518,-0.071851954,-0.14490226,-1.3360184,-0.2427644,-1.1505952},{-0.3382025,0.39887708,0.1463017,0.47341633,0.65615314,0.65788233,-0.16658026,0.9870422,-0.71186924,-0.6825156,0.074934795,0.23162672,-0.5827401,0.16984972,0.3864044,-0.48071933,-0.8963022,0.045769375,0.32613683,-0.16545439,0.9746752,0.44470674,0.11240088,0.19631796,-0.42310145,0.22809914,0.48127845,-0.16782364,0.18141335,0.27098015,-0.426788,-0.4749803,-0.65885925,-0.61041033,-0.18472181,0.25557545,-0.6179075,-0.512133,-0.3987908,0.39892322,0.017109836,-0.0075063165,0.16453764,0.4505561,0.13010448,-0.26205787,-0.2597773,-0.16753319,0.09116829,-0.35043752,-0.4021545,-0.18717967,-0.6480557,0.60093665,-0.63349944,0.17410544,0.1518473,0.44048494,0.15096332,0.19469266,0.09014264,0.81156695,-0.75548464,-0.27783325},{0.34234887,0.28282475,-0.38244534,0.5034744,0.46823487,-0.33125997,-0.0037642068,-0.33988315,-0.46609396,0.11764113,-0.14319327,-0.21744381,-0.7492394,0.31285885,-0.08895984,0.90930563,0.2577457,0.17108583,-0.3230813,-0.092478566,-0.5183891,0.74308866,0.4901215,0.45279944,-0.5075799,0.08551312,-0.02796006,0.3448579,0.19323605,-0.29180062,0.869491,0.1921299,0.13127787,-0.0714293,-0.13280484,-0.7585394,-0.80485106,0.5531137,0.52137923,-0.25152338,0.13154288,0.042144816,0.19443105,-0.7756424,0.29656792,-0.4393767,0.2123426,-0.00518515,0.20265912,0.6600145,0.8677554,0.8971922,0.045868073,-0.7751627,-0.3198419,-0.36647,-0.27997297,-0.51924586,-0.6501192,0.17928602,0.14214137,0.25992197,-0.44277573,-0.11207031},{-0.78651124,0.11295567,-0.63672125,-0.5156203,-0.73244303,-0.20457569,0.17188796,0.21772105,-0.3732675,-0.34028062,0.50882053,0.36811808,0.6374104,0.13334824,0.49377316,-0.24429713,-0.17809843,0.94683814,-0.6634596,0.62840605,-0.16777146,0.7323027,-0.23947312,-0.042030904,-0.3861635,0.38020948,-0.10654093,1.3078461,0.33667603,1.1585252,1.5751104,-0.14006107,0.29119745,0.4488497,-0.8788885,1.5947516,1.4868723,-0.04015362,1.5327123,-0.42770725,0.92161584,-0.6537391,0.24105819,-0.40973276,-0.18120542,0.8021203,0.26877475,1.6843765,0.54527396,-1.176374,-0.61217505,-0.4836342,0.67676127,-0.33997664,-0.0069165514,-0.1513363,1.1135488,0.2215464,0.028210258,-0.15486266,1.1287696,-0.024497263,0.43959892,-0.3912048},{-1.0346996,0.019441651,-0.04264088,-2.428872,0.9049679,-0.2374583,0.06905404,-0.45131582,-0.01963877,0.8405635,-0.92005354,0.7020138,0.018378347,-0.2588467,1.1441264,0.4294963,1.0638521,0.024602078,0.4491138,-0.52821803,-0.27778357,0.35261652,0.64841074,-0.47874326,-0.8277601,-0.110717,-0.20828898,-0.4382559,0.08064797,-0.6902623,0.04124063,-0.05830728,0.9471779,0.041918505,-0.8253959,-0.36552078,-1.0167888,-0.1377774,-1.5459818,-0.35556936,1.1687125,0.58120483,0.34899813,-0.9164255,0.7386481,-0.050800983,0.6061803,-0.010070508,-0.033429667,0.30004084,-0.34275505,0.36749205,-0.48971543,0.6317035,-0.5369309,-1.0751934,0.7344769,1.4838262,-0.29413795,0.36999294,-0.1428222,-0.4364597,-0.5495059,0.8778506},{0.53428185,-0.78152186,0.4444207,0.038993552,0.4383496,0.8688156,-1.1132199,-0.23440483,-0.10870665,-0.7523721,0.058185607,-0.16914529,-1.1489068,-0.21363588,-0.10511527,0.6701924,0.14273278,0.7237508,-0.4956504,0.27391404,0.44166607,-0.2904817,-0.5166337,-0.43388364,-1.1261185,-1.2115402,-0.05811373,-1.0414176,0.4166752,-0.41965428,0.09057528,-0.5905164,-0.930732,-1.1373173,-0.341376,-0.8745316,-1.0520592,-0.6782049,-0.23839292,-0.29146805,-0.076633185,-0.8980998,-0.5424514,0.63052225,0.071671344,0.3981603,-0.63744664,-0.44866857,-0.676789,0.1306848,-0.26656166,0.75841135,4.1256422e-05,-1.1127369,-0.33880872,-0.368762,-0.7549639,-0.57792294,0.26044074,0.3254839,-1.2396587,-0.053794045,0.34587756,-0.04256405},{-0.27450842,-0.48348862,-0.0677968,-0.4489517,0.3253072,0.120178826,0.42945284,0.45870048,0.5770194,-0.4540252,-0.18816286,0.9198029,-1.062431,0.6526391,-0.63326424,0.05941177,-0.46187833,-0.35541648,-0.17875151,-0.32383674,0.45386845,0.18774174,0.45870146,0.20043491,0.43158308,-0.14875126,0.2740823,-0.14170563,0.16216323,0.36310694,0.4830705,-0.27171543,-0.6801728,-0.11288884,-0.08477555,0.5228186,-0.58144355,-0.3377861,0.30771226,0.29979774,-0.4958186,0.39685777,-0.41079718,-0.0018742789,0.042151365,0.013912033,-0.10005501,0.2270293,-0.11804365,0.1034663,-0.4586728,0.9187805,-0.45200697,-0.47589245,0.116643116,0.06523287,0.45824763,-0.20093021,0.31773913,-0.10774688,-0.07036677,0.37786013,-0.28370428,-0.15006164},{0.17383127,-0.33301967,-0.31724855,-0.46510923,0.13867517,0.087620765,-0.019835366,0.26928693,-0.04205967,-0.02320215,-0.32161918,0.0028769507,0.27997956,-0.17283942,0.067725964,0.022650147,-0.014326322,-0.1335811,0.32373658,-0.08332248,-0.20100607,0.25444785,-0.0488144,-0.011962275,-0.15924549,0.036919598,-0.3182913,-0.21205771,-0.04908818,0.22820772,-0.0698274,0.13342659,-0.015150604,-0.04838855,-0.08821612,0.07608989,0.19048667,0.07118261,-0.01215395,-0.644503,0.23877,0.05427034,0.07914427,0.057918828,-0.18787812,0.25005895,0.25555137,-0.2041119,0.17902358,0.12531184,1.122448,-0.09356255,0.0060147145,-0.097242795,0.09438476,0.24919966,-0.14412355,-0.15962596,-0.06195865,0.45999214,-0.21217975,-0.21842635,-0.47999224,-0.17691109},{-0.049547773,-0.2744388,0.08698079,-0.29313156,0.31415796,0.01727589,-0.16996333,0.14910808,-0.06410772,-0.16463827,0.00030490174,-0.26487437,0.17639074,-0.02359415,-0.30852947,0.32436863,-0.19149274,-0.22392967,0.079872675,-0.1407504,-0.44376886,-0.34834066,-0.11221947,0.13888504,-0.009754554,0.0779375,-0.07129503,0.16968177,0.27274424,-0.29179206,0.20323552,0.16414055,0.2337134,0.16742523,0.2097922,-0.23017769,-0.07067614,0.17774126,0.05192372,-0.032687854,-0.20293497,-0.136964,-0.19613293,-0.083931416,0.2397438,0.16506952,-0.23529531,0.15373491,0.31075,-0.17172056,0.21790992,0.09918356,-0.45237866,0.16123854,0.23390198,0.1630016,-0.10393009,-0.10005342,0.002522671,0.07308273,-0.010361935,0.34884307,-0.45300063,-0.105421364},{-0.15207314,0.34568614,-0.35000166,0.4354579,-0.12500738,0.37337154,-0.3205052,0.058729373,0.23114526,-0.26627338,-0.36616498,0.2705201,0.23211282,0.28746453,0.14021105,0.13062707,-0.2710226,-0.4627553,0.19351035,0.103176296,-0.15306503,0.3358437,-0.16883902,-0.351118,0.08854338,0.35562775,-0.41300008,-0.58463866,0.24616775,-0.57180643,-0.06556842,-0.3961207,-0.1574717,-0.07822849,0.041111857,0.34632558,0.2524014,0.07125559,-0.24403727,0.2364681,-0.08044072,0.2868756,-0.20153682,0.09664108,0.004810353,0.119012326,0.34486505,-0.017811932,0.37029558,0.24342144,-0.21926521,0.1018123,0.37890106,0.28789675,-0.58794713,0.24360257,-0.040128674,-0.02901078,0.312757,-0.6267588,-0.55492073,-0.1373774,-0.0778965,-0.27496493}};
static const float layer_1_weight[64][64] = {{0.10134034,0.110399745,0.029984051,0.020775612,-0.145559,0.30108827,-0.093069986,0.4061089,0.24880286,-0.05527396,0.13575669,0.07149663,-0.3739731,-0.343368,0.06992587,-0.04521325,0.050760813,-0.09286666,0.27777138,0.38487884,0.19923174,-0.06387831,-0.23245536,0.12678318,0.023779992,-0.23912682,0.12323478,0.09962773,0.09634602,-0.21037188,0.2190334,0.11038765,-0.14357258,-0.07273777,-0.04710102,-0.24719873,0.15127164,0.03652395,-0.1298727,0.044814218,-0.25137472,-0.053456694,-0.013843652,0.36206257,0.040764224,-0.04430849,0.26208213,-0.12322664,0.25347835,0.41252685,0.28002322,0.21283464,0.08657002,0.17744638,0.12219743,0.15197133,0.14293925,-0.11835905,-0.41152394,0.26356304,0.2540486,0.29032606,-0.2227833,-0.0052335234},{0.20956975,0.011518142,0.17519812,0.34433913,0.3515601,0.053203307,-0.006076838,-0.098284036,0.125829,-0.1476071,0.11641134,0.043507904,0.02992086,-0.04500226,0.114549056,0.25882542,0.11090385,0.13217744,-0.15856273,-0.0013954565,-0.28881437,-0.072971456,-0.1841162,-0.06795366,0.19249359,0.11712358,0.2438582,0.057962112,-0.043542407,0.2654324,0.15427637,-0.06381378,-0.2097331,0.106480576,0.22032388,-0.0059261406,0.1719262,-0.055730928,-0.095972724,0.3331009,-0.04132639,0.37271515,0.22683272,-0.14340068,0.113406315,-0.044626087,-0.10847305,-0.107046336,0.16212101,-0.09971773,0.15481178,0.21002948,-0.038104393,-0.10001323,0.0056162663,0.025564168,-0.0011644951,-0.16271771,-0.033983972,0.29953307,0.050874893,-0.011346362,-0.15793507,0.049823467},{-0.05600781,0.19002089,-0.003586245,-0.012884223,0.14731552,-0.11227914,0.03761094,0.09117626,-0.0489351,0.16053177,0.033247836,-0.12460094,-0.04440075,0.06450459,0.18768726,-0.14165753,-0.20908831,-0.14116542,-0.17410621,-0.04104102,-0.039059397,0.120892994,-0.078616425,0.13257672,0.22138275,0.10413155,0.24749921,-0.03500933,0.026255315,0.2754758,0.30917892,0.18696369,0.023971612,-0.24081026,-0.0674223,0.13107283,0.03532205,-0.07405969,0.037500132,0.08335621,0.0467839,-0.084494755,0.20267606,0.4161178,-0.010742629,0.053460054,0.07934397,0.26171407,0.0035852562,0.08776609,0.24989292,0.16794339,-0.18893138,-0.14163606,-0.0022550018,-0.24318597,-0.12799647,0.13531148,0.07645351,-0.10582805,0.079547405,-0.19483802,0.20428348,0.007474765},{-0.024411106,-0.2916309,-0.071395636,0.03329614,-0.27520195,0.16863161,-0.07602881,0.061346367,-0.1441176,0.049311962,0.1289045,0.1163488,0.050785623,-0.23055468,0.09334541,-0.08267254,0.110445976,-0.07060763,-0.21963085,0.21714875,0.17042527,0.085575365,0.058853563,-0.11977977,0.24526626,0.15901847,0.011289456,0.17342934,-0.3535242,-0.15851702,0.19933705,0.14695123,-0.008430245,-0.22931038,-0.39528638,-0.19062023,-0.15862903,0.25709802,-0.2352879,-0.053728167,0.18865794,0.032424442,-0.31792808,0.0843981,0.42420912,-0.06131786,0.3389717,0.28562725,-0.21365567,0.123692706,0.09540868,-0.2333054,0.115766115,-0.0018581516,0.026024181,-0.0826188,0.38108847,-0.09590381,-0.2488081,-0.077913925,0.10635893,-0.109549224,-0.04438895,0.06733904},{-0.22156256,-0.102311395,0.10864744,0.16047049,-0.120616406,-0.16989319,-0.47942415,0.053130437,0.2996925,0.07324767,-0.113619305,-0.14904079,0.049374755,-0.15440162,-0.14766903,0.04468992,0.10688782,0.2018907,0.23317204,-0.03573918,-0.010605552,0.20121133,0.03282446,-0.022728665,-0.044696216,0.24517962,-0.22886407,-0.079935715,0.24413481,-0.15920815,-0.16961417,-0.05296809,0.20328508,0.2727276,-0.09475744,-0.12693548,-0.15755513,0.013077928,-0.023363352,0.104310155,-0.03633133,-0.10636105,0.3282532,-0.20255212,0.15155746,-0.03029798,0.20988949,0.24709013,-0.2704887,-0.11086523,0.12687187,0.01726399,-0.11091472,-0.1383397,-0.1946448,-0.21429098,-0.008183234,-0.038267683,0.106612585,-0.047379166,0.1460136,0.025197122,0.099346586,-0.13991624},{-0.7404188,-0.018009877,-0.60963553,0.033187658,0.116980866,-0.19403827,0.2544221,0.46977994,0.24985904,-0.017380685,-0.22864161,-0.12940516,0.15882468,-0.35809824,0.38089526,0.15761498,0.13291821,-0.22422574,-0.17583592,0.05389768,0.2545209,0.019629257,0.00579978,0.19128054,0.6382848,0.11628817,0.83818376,-0.16873729,0.33329767,-0.31574365,-0.06416466,0.40725112,-0.108841404,0.2664858,-0.61525506,0.39799923,0.50556755,-0.50652236,0.26401037,0.31245893,-0.2838284,0.041679025,-0.022583477,-0.16108763,-0.005410522,-0.2948501,0.043060217,0.17809941,0.09385593,-0.5766351,-0.06898965,0.4651347,0.60671896,-0.21393333,-0.26915428,-0.23328587,-0.17242934,-0.43902636,0.16537878,0.43328044,0.21799985,0.08835328,0.38908038,0.12601124},{-0.12814733,-0.35646513,-0.032304265,-0.0034824703,0.15993693,-0.05847491,0.45666814,0.12401763,-0.21590076,-0.0026596056,0.3826738,0.22846113,0.05935633,0.111455,0.11245268,0.39909816,0.17939368,0.25651968,-0.29791623,-0.11998428,-0.63509893,-0.36206564,-0.39622733,0.0037140064,0.44023973,-0.12357374,-0.085753165,-0.36969602,0.04613285,-0.07598966,0.054825,-0.09844025,-0.39608827,0.46588692,0.16416332,-0.10588888,0.2825917,0.032299984,-0.12833445,-0.2715288,0.030618904,0.08702773,-0.08139222,-0.22883438,0.02553808,0.090000585,-0.28896236,0.0145815825,-0.031802647,0.27144364,0.07766026,0.2901209,0.1448705,0.065705396,0.045711458,0.49443677,-0.15502505,-0.063429005,-0.0014621192,-0.13985212,-0.33331382,0.20258646,0.12248732,0.2616828},{-0.02455069,-0.082521856,-0.006206464,0.5812459,0.10833203,-0.020483945,0.19106627,0.037212174,-0.014099453,-0.13214254,0.019368105,0.04290868,-0.23423441,0.20746043,0.058661122,-0.19434151,0.09719543,0.03540596,0.13611297,-0.05866272,-0.23946568,0.05439475,0.0042963633,0.33912793,-0.19165882,0.021827169,0.118233286,-0.13264573,-0.23317751,0.019946272,-0.093151644,-0.32722613,0.17951976,0.04731115,0.17655574,0.22941639,0.15888545,0.22632717,0.1026067,0.07867295,-0.44245794,0.10397871,-0.08431148,-0.1684003,0.35050878,-0.044483036,0.026681583,0.08709276,0.23128003,-0.078738995,0.071025796,-0.20193791,-0.06427411,0.049982037,-0.10555919,0.37042522,0.07295695,-0.160936,-0.106692396,-0.11641806,0.13852517,0.24409637,-0.013310565,0.025862062},{-0.22085148,-0.23289503,0.090391725,-0.14717081,0.1780118,-0.17947185,0.07510699,0.20364805,-0.04104176,0.23212871,-0.036021043,0.13320825,-0.12605914,-0.07447214,0.14266214,-0.21110679,0.20394994,0.019396959,-0.10939742,0.18677123,0.19553313,-0.1988679,-0.24072869,0.066708796,-0.031313404,0.16416118,-0.4455938,0.17167899,-0.086985275,-0.35305953,-0.017831476,0.036301065,0.0010049383,-0.08315991,-0.11141404,-0.0032310768,-0.20917666,-0.24181181,-0.11353798,-0.008167147,-0.16927549,-0.06999458,-0.18354717,0.12704246,0.09994135,-0.21108182,0.27222234,-0.025264725,-0.027852997,-0.23317876,-0.10209358,-0.005748282,-0.21911108,-0.16915977,0.024564875,-0.15284526,-0.3460648,0.15606236,-0.29646447,0.016717637,0.010813336,-0.04113833,-0.24799637,-0.029352048},{-0.15086511,-0.18564032,-0.17396182,0.066109225,0.12190641,0.089866765,-0.15705322,0.035996996,-0.24797428,0.01639713,-0.06790055,0.14650036,-0.017219529,0.100278005,0.14034198,0.10578634,-0.013840639,-0.0032223286,0.16133222,-0.20769167,0.3292528,-0.25947446,0.113668725,0.21073863,0.1834336,-0.03545965,-0.17623481,-0.2306344,-0.23184419,0.3514469,0.21894501,-0.15323377,0.10132351,0.02451763,0.112798266,-0.0392078,-0.05438819,0.113348216,-0.11306797,-0.07177141,0.034910426,0.126709,-0.16379736,0.20428783,-0.21061182,0.017421104,0.072089456,-0.13085109,-0.2100012,0.16807891,-0.18153022,0.015062559,-0.1114779,0.28010413,0.16414906,0.2288557,-0.10316649,0.28786123,0.018694878,0.12063537,0.15446645,-0.47260717,-0.08628283,0.08445036},{-0.08361159,0.086861886,-0.0064237043,-0.16742066,-0.07218232,-0.084798284,-0.07410131,-0.11515858,-0.14445019,-0.09140733,-0.019564474,-0.13943924,-0.030390618,0.1121349,-0.22438344,0.008887569,0.22046761,-0.060416978,-0.022070564,0.054220267,0.24985301,0.061515145,-0.01327417,0.19713362,-0.101146676,0.003456132,0.011254572,-0.031637557,0.17378084,0.58316684,0.20792636,0.14875697,-0.15799928,0.14668903,-0.17276636,-0.01645854,0.109637454,0.04118302,0.015488308,-0.15676536,-0.15528284,-0.02217335,0.21218456,0.23795593,0.023673175,0.30903515,-0.1606315,0.023069486,0.1802832,-0.00090217945,-0.19491783,-0.14046037,0.092391334,0.23505731,-0.111100174,-0.014522697,-0.17585112,-0.12656267,-0.10587317,0.107422955,0.16355684,0.18410562,-0.1727892,0.036053646},{0.1462119,0.017467799,-0.06208789,0.2977119,-0.19204059,0.2325272,-0.15372714,-0.096409164,0.17202036,-0.06755717,0.017120274,0.1109651,0.052669402,0.08234617,-0.0023203301,-0.11842282,0.1774595,0.29215407,-0.0136277005,-0.14923204,-0.1812521,-0.084157296,0.13642475,-0.19458377,0.013677798,0.15890475,-0.0413126,0.41549414,0.12629922,0.16797017,-0.1308258,-0.109794974,0.046407886,-0.15237005,0.20850214,0.15417612,-0.06299572,0.058691077,0.13481267,0.018402494,0.04513909,-0.03284651,0.005918281,-0.16353688,-0.14130366,-0.15287535,0.20686843,0.16140084,-0.09493285,-0.16683991,0.19635507,0.043175172,0.052375797,0.15465418,0.0045798467,-0.07143073,-0.08049815,-0.20721015,-0.060882404,-0.12005314,-0.093224145,0.036920775,0.22857401,-0.17400692},{-0.19978748,-0.06469619,-0.0838313,-0.37466526,-0.09384521,0.13294332,0.02117752,0.21018466,-0.11641447,-0.18931542,-0.22105815,-0.14518829,0.07309712,-0.21853903,-0.06909942,0.2639774,0.18855092,-0.13685416,-0.1391466,-0.0020076933,0.22636642,-0.117005184,0.19137272,0.21418412,0.27655908,-0.04536937,0.14126389,-0.072778694,-0.08989494,0.075017445,-0.27442026,-0.0065328553,-0.06561947,0.14012222,-0.2154784,0.19923156,0.14610836,-0.034658562,-0.016079457,0.11205848,0.17894131,-0.24680011,-0.05720717,0.047823366,0.10390324,0.08213562,0.0815149,0.20101485,-0.08322709,-0.13865165,-0.21134108,-0.034226168,0.054731112,-0.13049808,-0.042335883,0.06318439,-0.25691047,-0.0016416449,0.03936692,-0.15073772,-0.027789064,-0.07515454,-0.16984293,0.026970014},{0.09446548,-0.26517877,0.1452506,0.17662378,-0.051590934,-0.2522033,0.5128634,-0.10878847,-0.02511276,-0.35906145,-0.19886829,0.31804866,0.33868325,-0.09842662,-0.102884844,0.24759857,-0.15579863,-0.005393428,-0.24757451,0.40661788,-0.08866555,-0.3295005,0.2483974,-0.07868257,-0.034723006,0.101103865,-0.37912956,-0.0131479055,-0.16889893,-0.34108868,-0.14216416,-0.21503575,-0.09009871,0.19764021,-0.05666345,-0.10326448,-0.07039103,0.2290083,-0.34668866,0.050222438,-0.06521769,0.30518204,0.32103962,-0.21712868,0.26921156,-0.13984948,-0.15279785,0.054453265,-0.25575015,-0.0032504331,-0.32656828,-0.09453835,0.30064517,0.06687438,0.04992682,0.18010898,-0.31223765,0.2761419,-0.10855388,-0.4894258,0.10132043,0.47673878,0.17434922,0.20976278},{-0.1724784,0.07982856,0.015138388,-0.14975648,0.2541909,-0.117347255,0.22044984,-0.3431037,-0.09327796,0.016880548,0.1523443,0.051550247,-0.1489579,-0.053044174,-0.046577476,0.06636668,0.11018476,-0.023014937,-0.07209427,-0.46544445,-0.040989384,-0.050353333,0.051634017,-0.051112525,-0.32134897,0.27393764,-0.07042506,-0.13708943,-0.12169055,-0.027308704,0.006509911,-0.0819564,-0.2196051,-0.19629678,0.23876688,-0.14781226,-0.34306142,0.102886684,0.19619493,0.18228434,0.29184306,0.02075008,-0.15337922,-0.37765718,0.21696179,-0.0127598345,-0.15370171,-0.19227172,-0.06819157,0.1707998,-0.093546286,-0.25288752,-0.3036663,0.16889957,0.27223054,-0.05547455,-0.09601748,0.2902632,0.1719227,0.06747914,-0.039104573,-0.33378947,-0.11863043,0.33743787},{-0.11231202,0.19651346,-0.01756467,-0.13869551,0.23300044,-0.14935651,0.020053854,0.35296252,0.39827695,-0.17893773,-0.18809305,0.12256937,-0.32600474,-0.30903918,-0.14431073,-0.18270436,-0.0602655,-0.14867128,0.19041878,0.016101416,-0.14783598,0.19165395,-0.068025865,-0.100896955,0.17282018,0.07651779,-0.036809716,0.39930096,-0.22610259,-0.085282184,-0.20982525,-0.21943182,-0.17017768,0.26149693,-0.05695302,-0.10516326,-0.06461776,0.08011218,-0.11764229,0.11270123,-0.11097101,0.14298047,0.12239052,0.25156426,0.13564704,0.35757706,0.17183244,-0.17496262,0.1791645,0.13591196,0.030827662,0.046538528,0.3292402,-0.17824169,-0.04021424,-0.079845704,-0.16374709,-0.20340094,0.23150997,0.18818027,0.17357783,0.19075398,0.007636573,-0.17474498},{0.19880076,0.30603716,0.10790749,-0.23292741,0.15334727,0.11379279,0.005929196,0.3448336,-0.075563535,-0.23700216,0.03495346,0.1791662,-0.44532293,0.04227239,-0.0962257,0.09391519,-0.063508384,-0.17339315,-0.20202982,0.117054254,-0.26678133,0.12086017,0.025196081,0.06331065,0.20231491,0.15373755,-0.18530022,0.036984883,-0.19417801,0.010093648,0.029311776,0.031161103,0.020110225,0.11799207,0.13596386,-0.1496655,0.11334304,0.053154398,0.12395813,0.042739324,0.2781389,0.07973066,0.0081033185,-0.0037770842,0.3108761,0.57251394,0.19544151,-0.24204007,-0.041564696,-0.04612366,0.12506732,0.0109116025,0.17735423,-0.08480927,-0.05560816,0.16166855,0.040201955,0.38571286,0.09738882,-0.16296624,-0.07177206,0.020867167,-0.14482468,0.037525967},{-0.23408443,-0.12760176,0.063607424,-0.24406417,0.10311989,0.18168147,0.5058747,0.4394792,0.03287013,0.031425867,-0.30047762,-0.104510315,-0.05211001,0.14543892,-0.0057848664,0.33531317,-0.26063973,-0.04105782,-0.28965953,-0.1037742,-0.2507755,-0.03634404,0.02237792,-0.118771285,-0.08264932,-0.04264868,0.30229616,-0.24002202,0.28398627,-0.1258793,0.06425176,-0.10680395,-0.089326054,-0.25594056,0.04185602,0.10800586,0.09304204,-0.15610649,0.11113858,-0.31573448,0.32897636,0.2556642,0.19524282,-0.18220647,0.15000446,0.03404244,0.28297573,0.03841028,-0.15391366,-0.23857524,0.13392061,0.30943808,0.213718,0.41046014,0.15402034,-0.051408388,-0.17720631,0.5916082,0.19856142,0.07757749,0.072606206,-0.41700697,-0.14949377,0.25991178},{-0.30899954,0.25641382,0.19693835,-0.1620633,-0.059425402,-0.15592006,-0.019117132,0.1340895,-0.14773248,0.09131363,0.28534082,-0.004754407,0.18215428,0.19495614,0.19540316,0.09992359,0.15316129,0.108445086,0.22841834,-0.16139653,0.44440585,0.18597503,-0.14080063,-0.1153159,0.25625306,0.07987628,-0.028684491,0.11139707,0.044674933,-0.02938524,-0.12810053,0.026751794,0.21282476,-0.2569375,-0.21301246,0.025114363,-0.17875314,0.11526938,0.32722047,-0.38751817,-0.14903812,-0.17362443,-0.3248416,-0.3094399,-0.24691392,0.011551323,0.24226505,-0.11054225,-0.16511637,0.028004244,-0.21542062,0.18823868,0.008947505,-0.1863857,0.06101986,0.027494404,-0.11111761,0.070149235,-0.17285539,0.1101663,0.046792496,0.23219888,0.13243575,-0.015536881},{-0.10172927,0.18224208,-0.19553915,-0.3902994,-0.14569418,-0.20862798,0.28786308,0.15822463,-0.33908787,-0.031049712,0.0020160878,-0.11728537,0.23165318,0.046416108,0.10083672,0.35254636,0.20118509,-0.0131543195,-0.17669149,-0.20838866,0.09477924,0.26036894,0.15634783,-0.21591236,-0.123109326,0.17791668,-0.21435034,-0.22317027,-0.13755119,-0.167817,0.109657474,-0.17300053,-0.3108709,-0.08850808,-0.08781155,0.06594296,-0.10693251,-0.1515327,0.04272098,-0.013859338,0.02678572,-0.3218267,-0.04067071,0.28028035,0.05876282,-0.004092578,-0.20573272,0.24617766,0.20913993,-0.18583338,-0.13078038,0.11276095,0.060342282,-0.008483282,-0.046615746,-0.31632802,-0.21039976,0.08755779,0.09824744,-0.12647934,0.034885064,-0.054855745,0.07207102,-0.041462567},{0.04242142,0.064552665,0.290867,0.44037345,0.13783285,-0.10326682,-0.019210132,-0.13579987,0.14373697,-0.06810913,-0.14015499,-0.08269117,-0.21755162,-0.15064947,-0.062657334,-0.053049397,-0.13567561,0.111765265,0.06992566,-0.24597551,-0.07897653,-0.02006268,-0.026553981,-0.02005846,0.037489578,-0.053413715,0.12491299,0.056388587,0.17459111,0.3081151,0.14887491,-0.19591476,0.030652832,0.049542677,-0.019475728,0.020106016,-0.13614751,0.06153136,0.10639469,-0.039104868,-0.01830341,0.3756694,-0.0967273,-0.10328797,-0.18467163,0.097401336,0.18582253,-0.06635258,-0.065481246,-0.05547982,-0.050022837,0.17248322,0.30694428,0.030896867,0.03682256,0.12460951,0.21431586,-0.20671736,0.07871857,-0.14627017,-0.11248488,0.11106851,0.088333316,0.16706972},{0.1520739,0.16033956,-0.11799834,0.16818005,-0.10863547,0.015540456,0.1025985,-0.00025949426,0.24737829,0.09747968,0.16275914,-0.16502473,0.073126376,0.018876875,0.08785532,-0.19198008,-0.14778471,0.23372847,-0.16957045,0.04440382,0.03471104,-0.089330055,0.102494426,0.14483052,0.14154208,0.09215458,-0.042987514,-0.11917381,-0.06037317,-0.12846425,-0.22827007,-0.08104537,-0.13249242,0.13985004,0.23759966,-0.13832508,-0.07296148,0.14247657,-0.1153052,0.0662936,0.05115379,0.25086302,0.043222595,-0.13744871,-0.11846201,0.11131524,-0.20116715,0.033725616,-0.20653081,-0.03397273,0.085591644,0.05181147,-0.02467844,0.14184904,-0.015824074,-0.07209988,0.050014846,0.10649505,0.074054465,-0.1949673,0.120674476,0.19391766,-0.10026644,0.095057115},{-0.06504819,-0.23242882,-0.08168043,0.27640525,-0.0558697,0.26699245,0.17112862,0.095170945,0.10190999,-0.23585373,0.11388542,0.27597746,0.02831554,-0.122377545,0.21224004,0.032206994,-0.035331707,-0.1645064,0.12506229,0.01014883,-0.2045584,-0.25591457,0.11111115,0.14028326,0.11692944,-0.053072646,-0.031148845,0.080888756,-0.062561125,0.28096926,-0.00094199285,0.09485291,-0.14790912,0.34295136,-0.0037388986,-0.13689226,-0.0062855408,-0.15198064,-0.14501183,0.030642187,-0.013858062,0.19945197,-0.013464518,-0.28546673,-0.09058653,-0.20765378,0.33908904,-0.19412833,0.031255003,0.12144745,0.19102097,0.14487077,0.16553845,-0.06642647,0.1748651,0.15053642,-0.21214971,0.022663275,0.18107912,-0.21175715,-0.12522991,0.08806119,-0.033818487,0.013610698},{-0.34279713,-0.04303187,-0.26332295,0.27908146,0.029973026,0.107625976,0.10902001,0.05037744,-0.09730613,0.07158714,-0.12407884,0.09114196,-0.17418426,0.0043410696,0.160336,-0.15423308,-0.15813579,0.021456275,-0.09868415,0.27163568,-0.13579002,0.049578212,-0.18666512,-0.22478794,-0.18021096,0.13923375,0.1178376,-0.09364551,0.012063575,-0.0018552615,-0.22112642,0.022482863,-0.15971765,-0.14942403,-0.19000122,0.22312306,-0.17875467,0.07726589,0.15228125,-0.114533596,-0.16692744,0.14142188,0.14457612,-0.2099474,0.041026793,-0.02047627,0.083262384,-0.105444096,0.19054861,0.054421876,0.10462862,-0.041411683,-0.020859947,0.080514684,-0.15600657,-0.12692654,-0.013028532,0.13529852,0.12177973,-0.10652817,-0.07508501,-0.011932507,0.07025217,-0.30433372},{-0.11837317,-0.20193143,-0.020496879,0.028463544,0.07948685,-0.30682608,0.20573045,0.16216291,-0.20340796,-0.05404209,0.14433312,0.29418778,0.19702487,0.21895492,0.3872157,0.23627375,0.12451084,-0.4301279,-0.1705527,0.3218962,-0.0053705834,-0.37710857,-0.10623929,0.14465822,0.2099814,0.2759129,-0.2672262,-0.05524549,0.010360041,-0.08997807,0.071127884,-0.043933287,-0.1339377,-0.038295005,-0.03152963,0.05816911,0.10661481,-0.1455583,-0.09598335,-0.23215203,-0.14461325,0.24120317,-0.32527152,-0.1680227,-0.20900771,-0.27887306,-0.09421097,0.093458585,0.19575764,0.04273892,-0.14794901,0.105612345,0.14087099,-0.22586268,-0.09197768,0.14267597,-0.19905801,0.25871173,-0.25924483,0.22023106,0.09784532,0.06978466,0.016126549,0.22856246},{-0.110551365,-0.22583385,0.08346195,0.1754352,0.3400592,-0.37284547,-0.032758635,-0.032695483,-0.094722636,-0.019380014,-0.0722723,0.087416984,0.08839367,-0.107262,0.082305714,-0.14952204,0.07023049,0.122638084,0.0033271422,-0.20858514,-0.15433934,-0.17881106,0.060244802,0.207559,0.16694573,0.26895553,0.04296501,-0.11645908,-0.016548505,0.10320528,-0.42043978,-0.13481255,-0.08214769,0.006980839,-0.069471315,0.06958934,0.11297816,-0.06203233,0.19909823,0.18167607,-0.11342548,0.19380921,-0.19830419,-0.119126305,-0.130265,-0.3522617,-0.07862093,0.37340054,0.35519463,-0.3368706,0.118923776,0.3472617,0.036239516,-0.046138432,-0.31100744,-0.2800089,0.045129087,-0.19624297,0.25897077,0.2114608,-0.04991719,0.24664375,0.1389016,0.1212169},{-0.1662419,0.08972134,0.080824174,0.08978955,0.30634055,0.25866765,-0.16275524,0.12789996,-0.03143021,-0.2582101,-0.27550104,0.05008341,0.1412536,-0.1172322,0.09559277,-0.16932003,0.024562247,0.069820076,-0.14917046,0.0013526789,0.055103388,-0.16874236,0.20941368,-0.0066840895,-0.004514711,-0.01606887,-0.13183552,0.16640955,0.07054353,0.032137085,-0.11646198,0.044440072,0.13517134,0.044213396,-0.20891178,-0.053913526,-0.11118475,-0.15335333,-0.29026937,-0.07186138,-0.080330685,0.31148317,0.11241717,-0.35252026,0.022700438,0.18241364,0.22914138,0.09840001,-8.3537016e-05,-0.064710006,0.17969924,0.008932017,-0.23203227,0.2093502,0.10620322,-0.22818418,-0.117339216,-0.036427625,0.1860913,-0.1743788,-0.21509139,0.12672545,0.13202128,0.20224209},{0.049740538,-0.15643477,0.20168737,0.5251581,-0.15582679,0.016406517,0.5041438,0.12388733,-0.24977364,-0.16633935,0.011098393,0.25862592,0.04348007,0.10529722,0.18159722,-0.17833434,-0.1686164,0.070144,0.037137527,0.18685324,-0.32529882,0.1048326,-0.051861167,-0.0698502,0.15586717,-0.17721462,0.0019556093,0.3797883,0.06334926,0.25570643,-0.28743362,-0.29894406,-0.13320373,-0.026391886,0.13926321,0.06363814,0.032093987,-0.031236928,0.057301942,0.01440502,-0.2872538,0.2810984,-0.38449878,-0.20106775,-0.018494204,-0.19638553,-0.051108934,0.0033451428,-0.21158253,0.0393398,-0.04627695,-0.18907228,0.1219163,-0.06728645,0.17305277,-0.062977135,0.43362254,0.084685154,-0.03536515,-0.18241894,0.1946406,0.12955005,0.010508152,0.10370381},{0.06624178,0.14023414,-0.26269364,0.06397471,-0.13571167,-0.06915102,-0.028338086,0.04609019,-0.25866434,-0.064375736,0.24368422,-0.018110825,0.2081519,0.20729716,0.092437126,0.1241254,-0.1582452,-0.33760422,0.3330447,0.21709317,0.08429648,-0.059368204,0.24566607,-0.19616447,-0.23241717,-0.16058037,-0.16739598,-0.0451901,-0.020512719,-0.415852,-0.15753861,-0.19643848,0.011361786,-0.14176615,-0.2559788,-0.22286934,0.15634057,-0.08517039,-0.119236305,-0.061588276,-0.3212054,0.025581528,0.3211521,-0.00814741,-0.13927837,0.11005473,0.112930045,0.21401869,0.23825635,-0.17287306,-0.04702682,0.32191443,-0.0176158,-0.14387713,-0.16877744,-0.39041775,-0.063163064,0.10878076,0.04433838,-0.18707596,0.26968533,0.08244873,-0.06404149,0.01467333},{-0.069484755,0.23557733,0.102291204,0.10952771,-0.30358285,0.1689811,0.021398576,0.031361487,-0.08397353,-0.14824614,0.12949847,0.029070674,0.16520813,0.19133367,0.2613803,0.21212359,0.17349216,0.04832272,-0.12431394,-0.1406445,0.49566737,-0.0138105545,-0.25865287,-0.22172491,0.09567915,0.3314606,-0.04874659,-0.33328727,-0.055178184,-0.087917134,-0.18486997,-0.06980469,0.002661178,-0.1362959,-0.2514762,0.04164918,0.21392643,-0.17885615,0.22897807,-0.13348453,-0.21422838,0.20902118,0.10974987,-0.26431626,-0.1066584,-0.28502738,0.018359024,-0.13967839,0.0059358943,-0.05618673,0.07199054,0.038434558,-0.24435887,-0.0026787594,0.06657246,-0.07510187,-0.21118145,0.009977777,-0.11564474,0.13752805,-0.16372573,0.004242345,0.049028706,-0.095887735},{-0.20595703,0.3228083,-0.012554418,0.3045214,-0.1690479,0.048725538,0.037018817,0.0106767425,-0.32641944,-0.1756083,0.16911034,-0.31910217,0.09648423,0.3248975,-0.18502188,-0.071991876,-0.20081258,-0.23794673,-0.22841762,-0.2711115,-0.1943611,-0.1165173,0.30059892,-0.5373634,0.27394032,-0.15490808,0.24621405,-0.13045985,-0.12039016,-0.008368145,-0.07694507,-0.43714285,-0.1015467,-0.30726936,-0.10477879,-0.093739696,-0.24270643,-0.12841126,0.256596,0.4577998,-0.30642006,0.17998882,0.34371433,-0.11393781,0.14021094,-0.2749152,-0.2582389,0.31409708,-0.31683066,-0.20330538,-0.040710315,0.16613704,0.6743697,-0.079747245,0.0020500496,-0.21918803,0.0002508505,-0.23112033,0.1337029,-0.09068236,-0.11688158,0.27599758,0.26346368,-0.08769425},{-0.032306004,-0.06311791,-0.04230424,0.08001367,-0.00605274,0.116589926,0.10278874,0.117255665,-0.08820334,0.20436694,0.02449708,0.1492588,-0.2667586,-0.046169166,-0.2960796,-0.29190415,-0.18870914,-0.18497287,0.036952563,0.1645241,0.21671131,0.29722697,0.015840162,-0.16497718,-0.27832076,-0.22861627,0.13041157,-0.36500522,-0.053831905,-0.3062913,-0.0968472,0.01947876,0.17696798,-0.1473607,0.42976856,-0.41454086,0.3600992,-0.1792916,-0.20814492,0.2849198,0.16055551,0.16338792,0.07038763,0.11271664,-0.18311568,0.021970887,0.22079131,-0.049345557,0.032861184,-0.10259221,0.042601366,-0.19808884,-0.5348432,0.20663454,0.27754235,0.090594016,0.07916413,0.17289387,-0.23600392,0.2338009,-0.006076882,-0.06233111,0.17435053,-0.007489725},{-0.014972729,0.08408035,0.021467326,-0.39723098,0.12274243,0.06415688,0.0359075,-0.04288394,0.17620526,-0.072425395,-0.031383824,0.24613404,0.1341493,0.10500805,-0.22735256,0.1121389,0.01854823,-0.1478135,0.11210956,-0.17805332,-0.005835011,-0.20065053,-0.022898551,0.13356532,0.21776974,0.07261209,-0.05654693,0.10237207,-0.13344851,-0.013450484,-0.0049675037,0.055065874,-0.09427885,0.07809686,-0.060599606,0.1396722,0.0013204166,-0.24502178,0.012920672,-0.13790695,0.45192465,-0.26390335,-0.23139815,0.49179977,0.06817426,0.04445777,-0.063428916,-0.16472743,0.22329308,-0.30457455,-0.021186123,0.13149598,0.047081273,0.11689836,0.20562233,-0.203616,0.030792248,-0.17864144,0.1498513,0.03073602,-0.24919201,-0.05858802,0.11557252,-0.057260044},{0.13627692,0.11025681,0.055282168,-0.07699967,-0.18300332,0.0730837,0.17626391,-0.062725246,-0.3318342,-0.16755266,0.09618882,0.20106663,0.212993,0.0024848606,0.12429635,0.041857958,0.23558252,-0.29555395,0.0007228028,-0.012777557,0.63423747,-0.061753202,0.20461312,-0.16573556,-0.15250514,0.08666666,-0.037173156,-0.55711,0.0318729,0.18158726,0.002678089,0.26905635,0.24932754,-0.21998979,0.030125568,0.16627517,-0.09025842,0.16575454,0.15107691,-0.089473054,-0.013909656,0.006113599,0.14085677,-0.26852354,-0.29119202,0.057246324,-0.51851845,0.12732218,0.091061145,0.0039323503,-0.13321665,-0.03961582,-0.047003757,0.034087516,0.20689075,-0.03782674,0.13951112,0.19048181,-0.1971188,0.1265789,0.017552936,-0.057907782,0.17792338,0.20279233},{-0.18514457,-0.1688889,-0.2128594,-0.25915867,-0.051473983,0.028810656,-0.10858975,0.109052636,-0.21181738,0.20807296,0.13260703,0.13367493,0.15451886,-0.079995506,0.037257615,0.15217431,-0.14012028,0.016980855,0.10783286,0.274716,0.49738458,-0.021928152,0.1885899,-0.1532523,-0.010655205,-0.24774835,-0.0977918,0.0628992,-0.11901573,0.059712525,-0.06551127,-0.04649044,-0.037287455,-0.14596133,0.1990592,0.03885072,-0.071833186,0.17219576,-0.2163358,-0.15172969,0.055054918,-0.2705442,-0.062446687,-0.028162112,-0.03188755,-0.12729809,-0.35361388,0.17932244,-0.10785671,0.04768126,0.037587363,0.15164143,-0.18690185,-0.23588498,-0.108315736,-0.13006718,0.19627579,-0.12874354,-0.026390143,0.14341328,0.25917748,0.15778434,-0.118095174,-0.13586695},{-0.055027805,-0.25660893,0.013004513,0.10879882,0.19106203,0.010168919,0.03461662,0.09238689,-0.031097768,0.12686405,0.019913303,-0.14053357,0.17323905,-0.1140774,0.22255728,-0.12278051,0.04015515,0.05518103,-0.08510733,0.10657015,0.2000172,0.09469736,-0.031482294,0.090668105,-0.121499464,0.04897236,-0.3246677,-0.09083347,-0.08949647,0.1114487,-0.19537684,-0.006053962,0.18970895,-0.18304153,0.32048318,-0.20194396,0.12877803,-0.204168,0.02607542,0.090196736,0.030341033,0.26983476,-0.16421087,-0.35461584,-0.029180454,-0.46897683,-0.04303643,0.017338336,0.024629967,-0.07652393,-0.19561331,-0.083334655,-0.34675515,-0.14534535,0.2322519,-0.15383315,-0.12269004,-0.15731306,-0.06516162,-0.16814628,0.008595363,0.06386798,0.16544329,0.21844888},{0.021824976,0.024139456,0.09500725,0.07409738,-0.17904624,-0.2900191,0.2692933,0.012651649,-0.18928425,-0.011645716,0.06261699,0.032925192,0.14790235,-0.12856062,0.056809243,-0.24388118,-0.107654385,-0.097871155,0.24598221,-0.00068129424,-0.025347136,-0.23439053,0.15402111,0.008448113,0.071054175,-0.19469802,0.21087281,-0.36696762,-0.23821914,0.13496488,-0.016072761,-0.14002037,-0.15754649,0.04514755,-0.022977035,-0.127158,0.10837274,0.23554736,-0.18085515,0.12858029,-0.032204144,-0.012372938,-0.24828303,0.096398495,0.11547169,0.10694249,-0.16469897,0.03765131,0.04831649,0.09222068,-0.020039445,0.20660205,0.01340709,-0.10277263,0.08032754,0.05501696,0.15847696,-0.041454665,0.23107362,0.011647641,-0.059172347,-0.2446467,-0.13008322,0.059499808},{-0.096133806,-0.014674281,-0.28772798,-0.24019644,-0.027448095,0.009585644,-0.2394943,-0.21518639,-0.107886724,-0.28317058,0.0658744,0.019604558,0.15023458,0.13109581,-0.08290456,-0.24175128,-0.04854477,0.31878665,0.24363439,-0.10806926,0.15768605,-0.05948006,0.29686823,-0.13923246,0.1293041,-0.32995865,0.31925088,-0.34003952,0.12308326,-0.1065444,-0.1927324,-0.07630024,0.34159195,-0.15762125,0.27724504,0.03355699,0.06361846,0.13676964,-0.0615548,0.4086478,-0.2136764,-0.060523733,-0.017646885,0.09899729,-0.06819019,0.08952612,-0.2636496,0.021230506,0.12797913,-0.309348,0.037299346,0.04416877,0.16053188,-0.04160376,0.07559502,-0.12536876,0.08432771,0.13166049,0.104540326,0.13590594,-0.009354531,-0.27482563,0.2581076,-0.26071924},{0.244082,-0.11357551,-0.22173633,0.30246478,0.12664564,-0.13136448,-0.29860806,0.1822788,0.050915033,-0.16481666,-0.12876587,-0.18199681,0.07735618,0.1870911,0.0899543,-0.037687894,-0.17847835,-0.29018232,-0.059095234,0.03294323,-0.01748785,-0.103565045,-0.092087954,0.020619245,0.21530044,-0.36924025,-0.28891125,0.0029733118,-0.1696788,-0.19801025,-0.26214543,0.023248505,0.087275974,0.0039676344,0.20882787,-0.43582946,-0.12027777,-0.061020944,-0.13124602,-0.18474706,-0.2503028,0.21301784,0.3158148,-0.29739913,0.22481076,-0.13505006,-0.031131014,0.07412624,0.14595869,-0.17555675,-0.0068735783,-0.0010814276,-0.40386525,0.14156745,0.4422729,0.23819476,0.122346625,0.016130062,0.15497734,0.16579652,0.006443252,0.006498081,-0.120858975,0.29018608},{-0.12644732,-0.20550744,-0.049483746,0.027794505,-0.034257747,0.1476711,-0.19944865,-0.062901534,-0.18442051,0.07258175,-0.25492847,-0.00089638866,0.13960093,0.13597421,-0.06312756,-0.10766466,-0.18099275,-0.06020477,-0.13357784,0.14244962,0.3515933,0.043334454,0.29589087,0.18486258,0.039760713,-0.07361364,0.1546005,-0.39231253,-0.06408607,-0.18551001,-0.27452508,-0.15560395,0.13609433,0.08704632,-0.28658858,0.15084632,-0.09247273,0.23659803,-0.008044276,-0.11678307,0.11865203,-0.086417496,-0.034196854,0.087606765,-0.12326455,-0.15423559,0.069628716,0.18706648,0.16082548,-0.17389086,-0.21297948,-0.37307236,0.09815725,0.32648808,-0.2575648,-0.08346413,0.17264563,0.27228934,-0.36127838,0.10497275,0.338295,-0.3186852,-0.15540746,0.032146946},{-0.098609135,0.28735,0.20922984,0.03849152,0.23815829,0.15614341,-0.00030087677,0.014499523,0.22081932,0.13480575,-0.122704685,-0.11512691,-0.06994349,-0.1610976,0.11782864,0.039022114,-0.005566182,0.10809379,0.0024112265,-0.1607315,0.036964156,0.32733217,0.21253443,-0.11538092,-0.1330821,0.14807501,0.06971766,-0.21164097,-0.17108518,0.11943081,0.19478431,-0.024300633,-0.18692453,0.17837639,0.09051069,0.1712456,-0.16650616,-0.16651544,0.2804651,0.2041712,0.07918089,-0.10674446,0.15577313,0.33187786,0.2995168,0.08393977,0.3186002,-0.0691717,-0.045677368,-0.08025757,-0.10042537,0.03244574,-0.028918073,-0.030173454,0.13994859,-0.056626964,0.035079673,0.13303795,0.39870808,0.14897536,-0.3439384,-0.25255907,0.04715053,0.23463888},{0.006504251,0.12653409,0.05515012,0.080056526,0.16924231,0.21263176,0.17976408,-0.19626231,-0.18304557,-0.16025814,-0.2896309,0.2674614,-0.32296097,0.21176478,0.05241274,-0.022668911,-0.08054118,0.14029585,-0.0632197,0.052550208,0.0733601,-0.013937146,0.091228954,0.0058888653,-0.002333543,0.20505376,-0.3392144,0.101581044,-0.1572776,0.102621354,-0.078160755,-0.20588154,0.03158088,-0.10944561,-0.14019895,-0.05724047,-0.10227722,-0.06603986,-0.122022115,-0.14762917,-0.06652069,0.160606,-0.08310204,-0.010155052,0.030557616,-0.008759689,0.076591544,-0.15116258,0.007674577,0.21903166,-0.18428743,-0.10828465,0.1662525,-0.1328882,0.037652474,0.04924332,-0.09406384,0.37072015,0.04579384,-0.107760444,0.010462006,0.19859694,-0.025872827,0.0102488715},{-0.08379526,-0.15966488,0.090876505,0.05733875,0.17641155,0.17089815,0.059615254,-0.19862401,0.08158964,0.14474353,-0.15083583,0.15713432,-0.32278904,-0.26231867,0.067280985,-0.06721946,-0.13566743,0.27598974,0.05950232,0.101200625,-0.28689617,-0.13268577,0.08146477,0.023140017,0.13187593,0.23314437,-0.11879681,-0.1688388,-0.04312224,-0.17905541,-0.027297616,0.018725315,0.0667484,0.038609974,0.17407209,-0.086699314,-0.14032449,-0.028753344,0.08835834,0.21731892,-0.2428118,0.11129172,0.079254754,-0.13827595,0.06478162,-0.25588402,0.16976796,0.03248166,0.2196582,-0.13578163,0.11085412,0.06881515,-0.014762615,0.10346503,0.21410628,0.21482542,-0.124235794,0.093922876,0.046613302,0.14032915,-0.16048266,0.012643625,0.119353786,0.24852762},{-0.03803761,0.027832128,0.14713398,-0.037841085,-0.24283144,-0.02855522,0.062367592,0.06517102,-0.15157881,-0.17335492,0.25078106,-0.19931012,-0.092330456,-0.06883543,-0.0717677,-0.24850295,-0.15289402,-0.15519217,-0.031989675,0.0927706,0.07422947,0.10584714,0.09344796,0.03024233,0.04380805,-0.3061952,-0.12694891,-0.043163907,-0.19643894,0.22250038,0.2436518,0.10619407,0.27038035,0.05413494,-0.053447843,-0.24540938,-0.1675818,0.2746907,0.046547074,0.14264025,-0.13783884,-0.30322254,-0.034800332,0.06580549,-0.1289721,0.14219022,-0.12731014,0.029674921,-0.19402981,-0.16295081,0.009477973,-0.15123656,-0.10856837,0.047670104,0.046956398,0.014938806,0.17024358,0.20097901,0.03616962,-0.19158518,0.029725322,0.08781226,0.17184477,-0.14081153},{0.10056293,0.30876613,0.020533547,-0.03851429,0.0569344,0.026650883,0.48194697,0.08873812,-0.116434574,0.37045383,0.09827523,-0.07252669,0.1525892,0.027452393,0.11978825,0.09622798,0.002111632,-0.011882337,-0.078973584,0.19406119,0.035923537,0.31224504,-0.06140605,0.083971046,-0.00857995,-0.07499667,0.12637214,0.46717852,0.092539005,-0.09962457,0.2144057,0.08477333,0.24970491,-0.07715755,-0.17407505,-0.035406176,0.12693436,0.116014004,-0.017092476,0.019306514,-0.025216768,-0.15728594,0.33780438,0.40861353,-0.2695996,0.29320818,-0.14525542,0.16348575,0.17584154,-0.4653196,0.32799459,0.066309266,0.18329556,0.2150343,-0.13636085,0.037299994,-0.051102065,-0.12085162,-0.13208927,-0.15692265,0.4190596,0.2456135,0.119555555,-0.24067435},{-0.28848857,0.35541093,-0.03408748,0.08786601,-0.0696517,-0.080974154,0.52179706,0.27661744,-0.2637741,-0.25148177,0.2148548,-0.16457911,-0.023131104,-0.074632876,-0.19716616,-0.20406543,-0.22433825,0.23634203,-0.062226586,-0.01412835,-0.3668919,-0.3343923,-0.11728435,-0.2749912,0.036349684,0.09202573,0.02110737,-0.10570501,-0.10735229,0.34325832,0.0873239,0.04877616,-0.24921687,0.07901381,0.28778952,0.32662436,-0.24108006,-0.29695925,0.093708664,-0.32834435,0.14494681,-0.24091376,-0.0544421,0.09208733,-0.17019923,0.30433714,-0.029447412,0.10248056,-0.166619,-0.059252795,-0.021913944,-0.122367695,0.37162742,-0.2842305,0.088598475,-0.10180103,-0.1309591,-0.18415315,0.1016578,-0.32853168,-0.092285305,0.6200467,-0.041598037,-0.033221584},{-0.014145247,0.10069252,0.021380743,-0.056096345,-0.13864179,0.029880527,-0.2046796,-0.133249,0.07881116,0.063853495,-0.0312742,0.079497546,-0.038777325,0.18904284,0.16446257,0.040918753,0.35003403,-0.039744116,0.06486822,-0.38030544,-0.038397927,0.21441202,-0.019957824,0.28041184,0.19899046,0.07452631,-0.01775062,-0.15361185,0.07935393,-0.07639142,0.04571253,0.19211958,-0.08393499,-0.085796215,0.031880505,0.2867568,-0.023894249,-0.14367558,0.18622474,-0.11257457,0.29728308,-0.19242303,-0.0067696064,-0.09051564,0.013666656,0.57241017,0.020153638,0.22571713,-0.08794601,-0.017322857,-0.34607455,-0.07902838,-0.4932062,-0.050287772,-0.008470364,-0.43067753,-0.2775116,-0.124632426,-0.12927835,0.12897164,0.12433192,-0.30614433,0.1651681,-0.038981255},{-0.011350686,-0.24514253,-0.26631534,0.22349438,-0.05382041,-0.20092213,0.14890371,0.043855127,-0.23418671,-0.012082976,0.14204447,0.07500563,0.23075932,-0.16006592,-0.09913258,0.055834576,0.037631158,-0.02233391,-0.13293733,-0.06404074,0.021737412,0.18063079,-0.0022691418,-0.1931427,-0.072984785,0.16744402,0.11866119,-0.41995293,-0.12429278,-0.017812544,-0.13141185,0.17157222,0.29220897,-0.07475559,0.11964974,-0.3166146,-0.23243584,-0.23320478,0.05245893,0.18197346,0.19684997,0.22189224,-0.009403476,-0.21955578,0.1647848,-0.53853726,-0.2336552,-0.08982182,0.022765895,-0.33909115,-0.11223968,-0.23024097,-0.63827395,0.2156871,0.110542454,0.050448243,0.082354665,-0.14106974,-0.49230397,0.056464266,0.06871255,0.031940352,-0.18160169,0.17375666},{0.07906351,0.0019708895,0.31539363,0.48679447,0.09874757,-0.15159185,0.10574762,-0.39702255,-0.071278274,0.019480884,0.038565308,-0.12037223,0.16772747,0.17861989,-0.21395151,-0.18902121,-0.009927556,0.25571176,-0.16769302,-0.02677566,0.012011115,-0.11789642,-0.14880173,0.061784506,-0.15436666,0.18521704,-0.13648824,0.30466884,-0.052068993,-0.26266763,0.15646344,-0.067817554,0.082105465,0.002437405,-0.28996006,0.06819189,0.0076481584,0.14746785,-0.12988493,-0.32475784,-0.4130595,-0.008255173,0.33310208,-0.19650437,-0.37220034,0.1541723,0.26837456,0.23005788,0.2471566,0.23255071,-0.0109663075,-0.17291042,-0.15493327,-0.05094923,-0.2365871,-0.11466247,0.13814111,-0.04524856,-0.19800577,0.043662526,0.07754955,-0.10833626,-0.24446715,0.3206018},{0.22935818,0.118045226,0.00044316347,-0.0013479893,0.15139574,0.26886773,0.014121891,0.005170754,0.3976629,0.09893507,-0.0706478,0.0019199429,-0.43014228,-0.15270841,-0.067878485,0.015834302,0.21735,-0.24838978,0.30975792,-0.06348336,0.36938503,0.104695156,0.13567147,0.47847807,0.23332314,0.33855024,-0.49569365,0.32315055,-0.24947117,-0.08133572,0.01898,0.5386567,-0.17325968,0.083017066,0.05681507,-0.101335466,0.10289966,0.17913045,0.16908365,0.11234706,0.21529828,0.011039271,-0.11573149,0.10006676,-0.041452907,0.34878248,0.2890551,-0.058921568,-0.14490011,0.01658371,0.07918844,0.16824482,0.06613831,-0.021938479,-0.04647504,-0.12157166,-0.18040475,0.14986435,-0.6243015,0.34903765,0.2635593,0.23323196,-0.1984086,0.054085076},{-0.2580083,0.121910945,0.19066402,0.28548172,0.0029729041,-0.14793831,-0.06385119,0.15671265,0.06806233,-0.2220642,-0.03561452,-0.17169629,-0.24375546,-0.0012671322,-0.079212844,-0.07955046,-0.02567964,-0.0034448723,0.35636982,-0.272706,0.40556997,-0.19398756,-0.04169407,0.18800348,-0.001954128,-0.08318703,0.045227498,-0.25863686,-0.11402812,0.27729097,0.09878291,-0.041283485,-0.12441953,-0.16418116,0.31562313,0.21291576,0.15046695,0.14374429,-0.14668508,-0.20740414,-0.06721152,0.17536943,-0.019111836,0.02458626,0.0351831,-0.013992297,-0.11814294,-0.17152627,0.18872817,0.145469,0.18753986,0.22317825,0.19181097,-0.13505831,0.34492505,0.3084053,-0.20419164,0.26312855,0.044176783,0.004441844,-0.097950675,-0.045637354,-0.1216012,-0.03177195},{0.17200449,0.13898042,-0.157046,-0.049674023,-0.16469747,0.20838636,-0.075362824,-0.04738363,-0.14383914,-0.15467936,-0.22242287,-0.16163242,-0.3824668,0.13586272,-0.09039271,-0.038278144,0.14351338,0.007629552,-0.21719807,-0.14672871,-0.2605376,0.17962462,0.04228099,0.021416577,0.22714052,-0.01936617,-0.061887983,0.42100468,-0.008305885,-0.30517522,0.15467282,0.040487118,0.036899753,-0.08205783,0.011587102,-0.042891175,0.17787297,0.071797684,-0.11087196,0.16524582,-0.060596887,0.2162508,-0.16847475,-0.117807046,-0.12474213,0.0060863225,0.3180849,-0.16422716,0.07409058,-0.030136555,0.05096056,0.011391411,-0.22520176,-0.06480043,0.13243225,-0.09964234,0.21129438,0.1272738,-0.07711006,0.18163554,-0.1680206,-0.11253652,0.039664913,0.033272456},{-0.008159397,0.15378901,0.0017826708,-0.10160567,-0.22721356,-0.029898884,-0.031550545,-0.015784923,0.030989671,0.102572925,0.20706019,0.06429973,0.09676561,0.09458037,0.042123925,-0.08563011,-0.14755419,0.18557261,-0.008580475,-0.1508213,0.16918084,0.088214226,0.12492335,-0.06023039,0.089448534,-0.23589994,0.1936002,-0.21407649,-0.2465882,0.29811865,0.08894386,0.09871795,0.19594228,-0.04548205,-0.119259134,-0.24287602,-0.04538822,0.14302418,0.06524561,0.13329588,0.01131036,0.13087687,-0.27790654,0.19388823,0.090198316,-0.14671409,-0.14331721,-0.15182193,-0.19079088,-0.032392472,0.17031492,0.13010278,0.17739303,0.0951171,0.09273173,0.039311368,-0.124411836,0.23043618,0.14646986,-0.03458204,0.19524977,0.032599702,0.13402607,0.011611778},{0.115892984,-0.25755128,0.009299329,0.30601943,0.11788489,-0.15021664,-0.00082485005,-0.2243984,-0.18706444,-0.106562205,-0.115180604,0.25021887,0.38581216,0.08099626,0.21497537,0.0009878638,0.21350914,-0.015983846,0.4171475,0.17588694,-0.30878568,-0.3249739,0.009021034,0.1536164,-0.18248792,0.16458625,-0.10760917,-0.11989591,-0.048527475,-0.17319265,-0.16624883,-0.037157647,-0.07220997,-0.06835031,0.03773723,0.05949921,-0.15143421,-0.2167421,0.092694454,0.23537837,0.18937293,0.048165753,-0.06922056,-0.21020995,-0.06588506,-0.10629547,0.08747199,0.12921156,0.31044453,-0.060249418,-0.23815723,0.4368379,0.09492711,0.17336088,-0.2733843,0.07120756,-0.22190155,0.017035095,-0.20869868,-0.24122307,0.03799602,0.0242715,-0.29737,-0.060420897},{-0.21835053,-0.18698631,0.10334891,-0.3450944,-0.3456571,0.078419045,0.023069132,-0.023955924,0.048423715,-0.13736154,-0.14143795,0.054521862,-0.091034465,0.29743344,-0.087798245,-0.12920037,-0.090575926,0.104112655,0.16431102,-0.2365846,0.25073606,0.17729257,-0.10319066,-0.0744115,-0.0028859384,-0.047866985,0.10746978,-0.19968952,0.029343786,-0.07404442,0.16065605,-0.15878722,0.015035216,-0.024951981,-0.031211855,-0.0022524907,0.39065138,0.12585488,-0.03109315,-0.121180356,0.13559859,-0.24507467,0.034118913,0.22143716,0.26272273,0.009584398,-0.029147265,0.02996756,-0.022038737,-0.107299775,0.18496683,-0.01440781,-0.026269235,0.078177445,-0.06298397,0.20459972,0.19769761,0.15578184,-0.2476449,-0.08522399,0.12639497,-0.087576136,0.1712653,-0.15333234},{-0.36704326,-0.027770136,0.20407282,-0.1966304,-0.18527994,-0.31487447,0.1591833,-0.09366502,-0.13428558,-0.14515631,0.2331461,-0.093882695,0.28341666,0.16837056,0.19443938,-0.07288167,-0.12126509,-0.102525406,0.24738087,-0.15636018,0.019472947,0.122538656,-0.068113305,-0.12506372,0.15585431,-0.15599677,-0.17097296,0.1512577,0.15950398,-0.13876824,-0.05021877,0.06743997,-0.34470496,-0.021922745,-0.2488898,0.053533606,-0.22876772,0.25263655,-0.07629797,-0.35257187,-0.09607645,-0.21745212,-0.16148043,-0.24059422,0.0669597,0.06950263,-0.14790034,-0.045758706,0.18813235,0.20363975,0.17377302,-0.10570847,-0.005673031,-0.36421296,-0.05239403,-0.23809895,-0.102459714,-0.2847971,-0.3316993,-0.007865085,-0.25909868,0.44412452,0.01103457,-0.09957535},{-0.09997957,-0.14875303,-0.022171633,0.4867484,0.22145885,0.05002789,0.031511754,0.0431384,-0.1269422,0.09548392,-0.052342545,-0.07539618,-0.40729177,0.18530141,0.054683365,-0.09341635,0.11032029,0.16976072,-0.19539829,0.19137241,-0.40286374,-0.13548687,0.035384793,0.2649179,0.21392909,0.23253447,0.09080301,-0.2741656,0.14606681,0.083601914,-0.22361793,-0.18246344,0.08303492,0.1408887,0.09244098,0.12085111,0.19652082,-0.15649688,0.036488958,0.100436285,-0.25316754,0.2604508,0.03103403,-0.030489251,-0.12644455,-0.13122453,0.26326427,0.027492726,0.34185603,-0.2586208,0.29720286,-0.05350066,-0.079425044,-0.121655166,-0.043169692,0.050846647,0.008521056,-0.2980998,0.13038811,-0.13070059,0.11021282,0.12209332,0.027310772,-0.1496373},{-0.15080422,-0.0004334213,-0.06194782,-0.2311163,0.19574736,0.08911971,0.19211797,0.085014984,-0.33964097,0.04713419,-0.012989192,0.14204139,0.03262332,0.19195685,0.043565217,0.26874027,0.28101027,0.08030662,-0.29689702,-0.25229537,-0.10894239,-0.07503187,0.06524955,0.15478776,0.10433467,0.2988419,0.03818579,0.07495425,-0.06773715,0.17251094,0.20413764,-0.13438827,-0.2172456,0.056916654,0.18786961,0.02920904,-0.33493996,-0.13993542,-0.1452121,0.056687012,0.38551074,0.042082414,-0.12520939,0.018732527,0.2227777,0.17643367,-0.024418142,-0.28843167,-0.49564338,0.26736617,-0.20166981,0.18370044,0.0574827,0.116000324,0.26919454,0.121860564,0.042898245,0.13444117,-0.10924713,-0.24502173,-0.31907228,-0.11474841,-0.19581637,-0.09387392},{-0.035068296,0.024272077,0.2171873,-0.38853267,0.0029592195,0.06071693,-0.19540249,-0.23856197,-0.18437962,0.30058748,0.16377078,0.023460738,0.104716435,-0.06587415,-0.19729224,-0.2819218,-0.08029466,0.013157548,-0.09936397,0.15712063,0.0051837848,0.03670456,0.062004555,0.10241998,-0.2751198,-0.08975605,-0.5842263,0.12257692,-0.05738402,0.236699,0.36592266,-0.080665626,-0.11276865,-0.081995524,0.12444628,0.042027723,-0.31371245,0.30499142,0.041398354,-0.15387687,0.093923144,-0.2970117,-0.0073766224,0.034552608,-0.105586134,0.11059175,-0.11953435,-0.058674686,-0.047927428,0.11902931,0.027533798,-0.38245696,-0.33026642,-0.0013100292,-0.100651145,0.056165427,0.058871605,0.21271847,0.0793063,-0.3757447,-0.0744354,-0.057107992,-0.2538055,0.121916994},{-0.15949824,0.033601064,0.00459983,0.10858311,-0.14649262,0.22765301,-0.044278566,0.26005265,-0.062013473,0.20012829,-0.0113807,-0.008598521,-0.1793468,-0.1833981,-0.08168082,-0.055864815,0.13570061,-0.013356358,0.17106399,-0.23307042,-0.20920122,0.111173235,0.027137231,0.12611714,-0.09316184,-0.12324526,0.07564166,0.2552348,-0.16089267,-0.1283691,-0.11859089,-0.2697754,-0.12612548,-0.04101602,-0.0150732305,-0.079155006,-0.12724745,-0.115920015,0.2271927,-0.1518899,-0.19988132,0.14713816,0.2528902,0.014662249,0.21623455,0.1355504,0.057382066,-0.16920233,-0.05046087,0.046534017,-0.13179648,-0.0637837,-0.0792893,0.066091456,-0.021475714,0.0039505446,-0.09763663,0.14395371,-0.16713081,0.043965064,-0.08566489,-0.20199238,-0.12701927,-0.0208936},{0.06138745,0.042853206,0.09184148,-0.2777109,-0.37605438,0.037961226,0.22337224,-0.1827489,-0.5835111,-0.18977164,-0.17770907,0.2554506,0.109602176,0.10076072,0.13253936,0.05048069,-0.12450915,-0.13771656,-0.0030618436,0.03875503,-0.12311457,0.117463626,0.14322242,-0.23272853,0.1849238,-0.058896925,-0.24487467,-0.040615704,-0.12080222,-0.18515325,-0.26245332,-0.24128391,-0.21045926,-0.04716114,0.11649771,0.020335784,0.09270578,-0.14059114,-0.13833997,-0.106718294,0.2542907,-0.05744336,-0.041809686,-0.024812166,0.032626845,-0.037582904,-0.28001973,0.3024435,-0.25528,0.09968516,-0.3056399,-0.19826968,0.101631284,0.20966478,-0.14888147,0.11536852,-0.0022561308,0.02677622,0.13874473,0.013360238,-0.10509453,0.11357269,-0.14533634,0.16612256},{-0.11193583,-0.0022636713,-0.27604628,0.21412328,-0.01119049,0.09586433,-0.13099614,0.12608753,-0.037017286,0.07444788,-0.026645828,-0.097997576,-0.17278455,0.24299966,-0.099026844,0.14433013,-0.012138263,-0.28517196,0.19009295,0.2706906,-0.12921633,-0.210233,0.071729645,0.20634788,-0.09412544,0.10701498,-0.16437784,0.3845142,0.17984389,0.036825307,-0.057017703,0.016627282,-0.04444484,-0.04178142,-0.25361267,-0.0114122825,0.14965829,0.032452427,0.21611023,-0.13430698,-0.2548251,0.04589787,0.17919505,-0.14152518,0.20384654,-0.22535552,0.24030921,0.11708703,-0.027403098,-0.17980318,-0.019730715,0.26092318,0.020341605,-0.22299385,-0.2903535,0.0608636,0.26148024,0.029795738,-0.0075736837,-0.023380924,0.23770016,0.0767423,-0.00080857344,0.15543057},{0.35733637,-0.07566813,0.023278017,0.07851421,0.023679957,-0.23285666,-0.07725819,-0.09498581,-0.089743994,0.068941444,0.0015661173,-0.2671624,0.13936856,0.07734781,0.16895556,-0.03743071,0.0027291095,0.22902349,-0.025983263,0.11756141,0.039509136,-0.18313041,0.286487,0.010149224,-0.06998798,-0.26615888,0.16924796,-0.1191121,0.058868278,0.10770941,0.24664798,0.06018223,-0.12408917,0.026161337,0.05199856,0.039248466,0.0439031,-0.010869607,0.06458397,0.30566856,-0.16144088,-0.07634675,-0.034691468,0.1525985,-0.02313535,0.0791205,-0.25610924,0.09715686,-0.114225805,-0.13066144,0.068749115,-0.15385969,0.037888616,0.03712379,-0.13243446,-0.031009655,0.005432667,-0.205918,0.18250604,-0.15854801,-0.08760686,-0.06438039,0.29384035,0.29020098},{0.09143567,-0.1469786,-0.2525404,0.13720292,-0.14334403,-0.06492169,-0.14717714,0.34094298,0.06299647,0.10838495,-0.2553434,0.27389345,-0.23145717,-0.19237357,0.11883852,0.031499516,0.13434535,-0.25355947,0.13338381,0.10110735,0.62173164,-0.06665875,0.0035944087,0.1252967,-0.18887685,0.08978672,0.2383708,0.087025814,0.17619553,-0.067368865,-0.23335725,0.1585018,0.0529228,-0.07211714,0.27224538,-0.23410404,0.28730363,-0.2391771,-0.17640652,-0.03458306,0.22069894,0.23150867,-0.07776638,-0.15879601,-0.09816797,0.19811592,0.38130668,-0.04070775,-0.16915981,-0.06783125,0.39177573,0.119116165,-0.07624562,0.14458981,0.127218,0.036242336,0.1847421,-0.07416328,-0.12389364,0.18295483,0.33222383,-0.26566148,-0.055545747,-0.200508}};
static const float layer_2_weight[64][4] = {{0.18494546,0.068946846,0.031093348,-0.002963619},{0.08188916,0.10059733,-0.062360983,0.06490825},{0.054731783,0.05669959,0.06931668,-0.037449915},{0.36697072,0.13225947,0.32434574,0.2590961},{-0.0991941,-0.030187445,0.15343295,-0.11964044},{-0.17072551,0.2404365,0.096813224,-0.016534533},{-0.11996963,-0.019983232,0.04893198,0.005664666},{-0.27086854,0.060103256,-0.14217621,0.0125500765},{0.096641116,0.2657753,0.030356819,-0.24984573},{-0.011538651,0.20336843,-0.06804236,-0.06676374},{0.36636317,-0.023634685,-0.042790473,-0.030660108},{-0.25317067,0.10485703,0.16160567,0.12133615},{0.16698666,-0.19774693,0.17191881,-0.11305584},{-0.011826578,0.049734827,0.037765015,0.1879302},{-0.020181991,-0.0075510354,-0.0060335156,0.0015354267},{-0.26104787,-0.26437047,0.15585613,-0.19562744},{-0.051962327,-0.09570895,0.16978702,-0.3524207},{0.21587604,0.12663159,-0.16385631,-0.03229944},{0.12983754,0.017400762,-0.018876001,-0.010451198},{-0.076227106,-0.25173306,0.10578033,0.013441635},{-0.16729668,-0.22962795,-0.16491623,0.14446975},{0.12662448,0.13119163,-0.15137546,-0.15065502},{0.14408785,-0.13320744,0.2090841,0.27013403},{-0.048823077,0.13818634,0.07398025,-0.12507842},{-0.25086325,-0.043016102,0.11007397,-0.119142696},{-0.22119918,-0.10929886,0.26236185,-0.2040428},{-0.044764962,-0.13834472,-0.32738945,0.07541946},{-0.11890606,0.23899569,-0.064588964,-0.013632032},{0.03489774,-0.13873008,-0.13476716,-0.1710256},{0.30011737,-0.009328878,-0.07417147,0.21680896},{0.26792035,0.30215988,-0.20201889,-0.2344259},{-0.15346235,0.12369505,-0.046064164,-0.34673408},{0.030128397,-0.07848771,-0.018493084,0.05357876},{-0.047212437,-0.09767393,0.18473499,-0.22316849},{0.15706554,0.1678671,0.048851397,0.0057649952},{-0.051356874,-0.06397355,0.042219896,-0.01343461},{-0.19706847,0.068090305,-0.2097374,0.038436797},{0.32373658,0.13606365,0.33504045,0.30564195},{0.04343804,-0.04076417,-0.09831487,0.0487488},{0.0820058,-0.027251353,-0.0025682326,-0.020270789},{-0.2854493,0.20955475,0.023171512,-0.18049869},{0.0513501,-0.06629082,0.13387774,0.23534013},{0.1024515,-0.15465125,0.07471067,0.05975661},{0.0007005698,0.1235185,-0.044056013,-0.10518158},{0.013870001,-0.017114246,-0.0090643065,-0.009079184},{0.061743535,0.19704503,0.12220795,-0.10116608},{-0.048855502,0.26992252,0.09833847,0.033713207},{0.008105236,-0.11861496,-0.014395133,0.023354553},{0.119559206,-0.19104843,-0.05708261,-0.23799936},{-0.0039379164,0.20333306,0.2355155,0.16329154},{-0.0028198997,0.33337525,-0.23773305,0.061018534},{-0.19397552,-0.035726976,0.0025926349,-0.004725231},{-0.058837537,-0.0700452,0.13087381,0.13406025},{0.01606804,0.21151842,0.2086116,0.123301476},{-0.01583528,0.080363676,0.015757512,0.059765853},{-0.15668127,-0.004808949,0.026477689,0.06963027},{-0.090401605,0.14888154,-0.1578901,0.16072768},{-0.15358377,0.15220536,0.12673886,0.09190375},{-0.012826616,-0.22261703,-0.12335219,0.13135615},{0.0153072905,0.13430916,-0.27279472,-0.28194547},{-0.047683116,-0.014586985,-0.0393839,0.07291073},{0.19900851,-0.112189025,-0.14651702,0.010849012},{0.019120058,-0.09264659,-0.026250206,0.0055825054},{-0.027850974,-0.02198988,-0.0132240765,0.038469877}};
static const float layer_0_bias[64] = {-0.1863851,-0.08252947,0.073316015,-0.037180267,0.03884652,0.13771269,-0.049266636,-0.0283719,0.37167135,-0.54602116,-0.24301378,0.1523747,-0.14386278,-0.07985985,0.05953741,-0.5291994,0.059087407,-0.05752653,0.05757568,0.088637464,-0.021152215,-0.11922315,0.103383556,0.009636994,0.044308815,-0.2452478,-0.09463942,-0.32674447,-0.2066363,0.29734772,-0.16388437,0.0950149,0.08263985,-0.16527426,0.014242632,0.10195462,-0.74016887,-0.056359977,-0.25066942,-0.10024619,0.2643701,-0.12175329,-0.115319125,-0.2560986,-0.04698741,0.12846163,0.04103026,0.24978413,-0.021058377,-0.14416389,-0.18978974,0.28467053,-0.20436978,-0.08959609,-0.032749217,-0.06916838,0.17942542,0.06332291,-0.14220658,-0.07142801,-0.20334044,0.024493039,-0.7871081,0.12384629};
static const float layer_1_bias[64] = {-0.020201096,-0.0023587928,-0.03765536,0.004532457,-0.004201333,-0.008894401,-0.017840482,-0.0049481965,-0.005188617,0.024555704,0.012616394,-0.024249395,0.0044323867,0.043051574,0.0024032132,0.02151973,-0.006842038,0.08004404,-0.06702867,-0.042316187,-0.24567269,0.06035035,-0.08545079,-0.079709895,-0.07669644,0.03867815,0.036606967,0.34023806,0.051478226,-0.001332049,-0.16469276,-0.018612977,-0.016801085,0.0049945093,-0.010281395,0.039524578,0.098827615,-0.056386888,0.028944638,-0.0015150546,-0.013225315,0.07584186,0.012223491,-0.1973501,-0.029647822,-0.32884043,0.08397789,0.06427376,-0.038022466,-0.04018375,0.04299975,-0.07639229,-0.11493729,-0.07345244,-0.023547417,-0.1205389,0.009321877,-0.07944061,-0.07599491,-0.039874755,-0.025018092,0.20429544,-0.013358796,-0.023493962};
static const float layer_2_bias[4] = {-0.01251776,-0.037491553,-0.048874404,-0.006305442};

	void networkEvaluate(struct control_t_n *control_n, float *state_array) {
	
		for (int i = 0; i < structure[0][1]; i++) {
			output_0[i] = 0;
			for (int j = 0; j < structure[0][0]; j++) {
				output_0[i] += state_array[j] * layer_0_weight[j][i];
			}
			output_0[i] += layer_0_bias[i];
			output_0[i] = tanhf(output_0[i]);
		}
	
		for (int i = 0; i < structure[1][1]; i++) {
			output_1[i] = 0;
			for (int j = 0; j < structure[1][0]; j++) {
				output_1[i] += output_0[j] * layer_1_weight[j][i];
			}
			output_1[i] += layer_1_bias[i];
			output_1[i] = tanhf(output_1[i]);
		}
		
		for (int i = 0; i < structure[2][1]; i++) {
			output_2[i] = 0;
			for (int j = 0; j < structure[2][0]; j++) {
				output_2[i] += output_1[j] * layer_2_weight[j][i];
			}
			output_2[i] += layer_2_bias[i];
		}
		
		control_n->thrust_0 = output_2[0];
		control_n->thrust_1 = output_2[1];
		control_n->thrust_2 = output_2[2];
		control_n->thrust_3 = output_2[3];	
	
	}
	